<?xml version="1.0" encoding="UTF-8"?>
<!-- This network was created in GeNIe Academic, which can be used for academic teaching and research purposes only -->
<smile version="1.0" id="dataset_amamentacao_renomeado" numsamples="10000" discsamples="10000">
	<nodes>
		<cpt id="alvo_sucesso_ame_6m">
			<state id="Desmame_precoce____6m_" />
			<state id="Sucesso__AME_6m__" />
			<probabilities>0.5817910104609726 0.4182089895390275</probabilities>
		</cpt>
		<cpt id="tipo_parto">
			<state id="Cesariana_agendada__eletiva_" />
			<state id="Cesariana_de_urgência__Não_agendada_" />
			<state id="Normal" />
			<parents>alvo_sucesso_ame_6m</parents>
			<probabilities>0.2175459395376408 0.2584469472436278 0.5240071132187315 0.2267729521715228 0.2377680043980209 0.5354590434304564</probabilities>
		</cpt>
		<cpt id="tempo_ate_primeira_mamada">
			<state id="x_1_hora" />
			<state id="x1_a___24_horas" />
			<state id="x24_horas" />
			<parents>tipo_parto alvo_sucesso_ame_6m</parents>
			<probabilities>0.592188919164396 0.3769300635785649 0.03088101725703905 0.6084848484848485 0.3721212121212121 0.01939393939393939 0.5680428134556575 0.3562691131498471 0.07568807339449542 0.6127167630057804 0.3329479768786127 0.05433526011560694 0.7680995475113123 0.1968325791855204 0.03506787330316742 0.7828542094455853 0.1919917864476386 0.02515400410677618</probabilities>
		</cpt>
		<cpt id="oferta_outros_liquidos">
			<state id="Desconhecido" />
			<state id="Não" />
			<state id="Sim" />
			<parents>tempo_ate_primeira_mamada alvo_sucesso_ame_6m</parents>
			<probabilities>0.005244755244755245 0.8793706293706294 0.1153846153846154 0.005084082909659757 0.9272585060617911 0.06765741102854908 0.01924447612259444 0.7954383464005702 0.1853171774768353 0.01341589267285862 0.8627450980392156 0.1238390092879257 0.03539823008849557 0.5398230088495575 0.4247787610619469 0.01785714285714286 0.5178571428571428 0.4642857142857142</probabilities>
		</cpt>
		<cpt id="usou_mamadeira">
			<state id="Não" />
			<state id="Sim" />
			<parents>oferta_outros_liquidos alvo_sucesso_ame_6m</parents>
			<probabilities>0.8679245283018867 0.1320754716981132 0.9642857142857142 0.03571428571428571 0.8794642857142857 0.1205357142857143 0.9267993874425727 0.07320061255742726 0.7712765957446809 0.2287234042553191 0.8782608695652174 0.1217391304347826</probabilities>
		</cpt>
		<cpt id="faixa_etaria_mae">
			<state id="Adolescente" />
			<state id="Adulta" />
			<state id="Jovem_Adulta" />
			<state id="Maternidade_Tardia" />
			<parents>tipo_parto alvo_sucesso_ame_6m</parents>
			<probabilities>0.03178928247048138 0.2524977293369664 0.3832879200726612 0.332425068119891 0.02060606060606061 0.28 0.3539393939393939 0.3454545454545455 0.07339449541284404 0.2178899082568807 0.481651376146789 0.2270642201834862 0.03468208092485549 0.2485549132947977 0.4716763005780347 0.2450867052023122 0.1176470588235294 0.1719457013574661 0.5350678733031674 0.1753393665158371 0.0728952772073922 0.2161190965092402 0.5308008213552362 0.1801848049281314</probabilities>
		</cpt>
		<cpt id="escolaridade_mae">
			<state id="Ensino_Médio" />
			<state id="Fundamental_I" />
			<state id="Fundamental_II" />
			<state id="Superior" />
			<parents>faixa_etaria_mae alvo_sucesso_ame_6m</parents>
			<probabilities>0.5056433408577877 0.0474040632054176 0.4379232505643341 0.009029345372460496 0.5291005291005291 0.04232804232804233 0.417989417989418 0.01058201058201058 0.5642787046123651 0.07458292443572129 0.1521099116781158 0.2090284592737978 0.5467128027681661 0.04728950403690888 0.1591695501730104 0.2468281430219147 0.6232294617563739 0.04370700121408336 0.2254148118170781 0.1076487252124646 0.6170703575547867 0.04555940023068051 0.2064590542099193 0.1309111880046136 0.4804964539007092 0.1329787234042553 0.1471631205673759 0.2393617021276596 0.4646226415094339 0.1167452830188679 0.1462264150943396 0.2724056603773585</probabilities>
		</cpt>
		<cpt id="zona_residencial">
			<state id="Rural" />
			<state id="Urbano" />
			<parents>escolaridade_mae alvo_sucesso_ame_6m</parents>
			<probabilities>0.02395001735508504 0.9760499826449149 0.01717369970559372 0.9828263002944062 0.05915492957746479 0.9408450704225353 0.03083700440528635 0.9691629955947137 0.03078358208955224 0.9692164179104478 0.02145922746781116 0.9785407725321889 0.01195219123505976 0.9880478087649401 0.008902077151335312 0.9910979228486647</probabilities>
		</cpt>
		<cpt id="faixa_renda_familiar">
			<state id="Até_R__1_000_00" />
			<state id="De_R__1_001_00_até_R__2_000_00" />
			<state id="De_R__2_001_00_até_R__3_000_00" />
			<state id="De_R__3_001_00_até_R__5_000_00" />
			<state id="R__5_001_00_ou_mais" />
			<state id="Sem_renda" />
			<parents>escolaridade_mae alvo_sucesso_ame_6m</parents>
			<probabilities>0.2905241235682055 0.402290871225269 0.1822283929191253 0.09475876431794515 0.02221450885109337 0.007983339118361681 0.2870461236506379 0.4180569185475956 0.1663395485770363 0.09077526987242394 0.02453385672227674 0.01324828263002944 0.5257490636704119 0.3600187265917602 0.07631086142322097 0.01451310861423221 0.0004681647940074905 0.02294007490636703 0.5550660792951543 0.2995594713656388 0.08370044052863437 0.04845814977973568 0.00881057268722467 0.004405286343612335 0.4309701492537313 0.375 0.1194029850746269 0.04664179104477612 0.009328358208955223 0.01865671641791045 0.3919885550786839 0.4005722460658083 0.1416309012875537 0.02861230329041488 0.01716738197424893 0.02002861230329041 0.100929614873838 0.2656042496679947 0.2164674634794156 0.2324037184594953 0.1806108897742364 0.00398406374501992 0.08456973293768547 0.2077151335311573 0.2106824925816024 0.2492581602373887 0.2462908011869436 0.001483679525222552</probabilities>
		</cpt>
		<cpt id="situacao_laboral_mae">
			<state id="Desempregado_e_ativamente_procurando_por_trabalho" />
			<state id="Fora_do_mercado_de_trabalho__não_trabalha_e_não_procura_ativamente_por_trabalho" />
			<state id="Trabalho_irregular_e_sem_horário_fixo__bicos_" />
			<state id="Trabalho_regular_ou_com_horário_fixo" />
			<parents>faixa_renda_familiar alvo_sucesso_ame_6m</parents>
			<probabilities>0.3553137003841229 0.3546734955185659 0.177336747759283 0.1126760563380282 0.3589251439539347 0.3550863723608445 0.1717850287907869 0.1142034548944338 0.2652196929592377 0.3562731604023293 0.1296982530439386 0.2488088935944945 0.2649253731343283 0.3813432835820896 0.1432835820895522 0.2104477611940299 0.1601423487544484 0.2906287069988138 0.1470937129300119 0.402135231316726 0.1686143572621035 0.310517529215359 0.1218697829716194 0.3989983305509182 0.1232604373757455 0.2524850894632206 0.1391650099403578 0.4850894632206759 0.1380208333333333 0.2317708333333333 0.1848958333333333 0.4453125 0.09047619047619049 0.180952380952381 0.1380952380952381 0.5904761904761905 0.1 0.2130434782608696 0.1478260869565217 0.5391304347826087 0.1851851851851852 0.6296296296296295 0.1481481481481481 0.03703703703703703 0.3023255813953488 0.5581395348837209 0.09302325581395349 0.04651162790697674</probabilities>
		</cpt>
		<cpt id="nivel_inseguranca_alimentar">
			<state id="Insegurança_grave" />
			<state id="Insegurança_leve" />
			<state id="Insegurança_moderada" />
			<state id="Segurança" />
			<parents>faixa_renda_familiar alvo_sucesso_ame_6m</parents>
			<probabilities>0.1139564660691421 0.4302176696542894 0.117797695262484 0.3380281690140845 0.109404990403071 0.3905950095969289 0.13531669865643 0.36468330134357 0.02752779248279513 0.3875066172578084 0.05399682371625199 0.5309687665431445 0.02611940298507463 0.3567164179104478 0.04701492537313433 0.5701492537313433 0.005931198102016607 0.3748517200474496 0.02372479240806643 0.5954922894424675 0.008347245409015025 0.318864774624374 0.02337228714524207 0.649415692821369 0.007952286282306162 0.2962226640159045 0.005964214711729622 0.6898608349900596 0.0006493506493506494 0.25 0.003246753246753247 0.7461038961038962 0.009523809523809525 0.3 0.009523809523809525 0.680952380952381 0.001082251082251082 0.2305194805194805 0.01406926406926407 0.7543290043290043 0.1111111111111111 0.5 0.1666666666666667 0.2222222222222222 0.06976744186046512 0.3255813953488372 0.1162790697674419 0.4883720930232558</probabilities>
		</cpt>
	</nodes>
	<extensions>
		<genie version="1.0" app="GeNIe 5.0.6522.0 ACADEMIC" name="dataset_amamentacao_renomeado">
			<node id="oferta_outros_liquidos">
				<name>oferta_outros_liquidos</name>
				<interior color="e5f6f7" />
				<outline color="000080" />
				<font color="000000" name="Arial" size="8" />
				<position>964 276 1036 324</position>
			</node>
			<node id="usou_mamadeira">
				<name>usou_mamadeira</name>
				<interior color="e5f6f7" />
				<outline color="000080" />
				<font color="000000" name="Arial" size="8" />
				<position>957 449 1029 497</position>
			</node>
			<node id="zona_residencial">
				<name>zona_residencial</name>
				<interior color="e5f6f7" />
				<outline color="000080" />
				<font color="000000" name="Arial" size="8" />
				<position>836 560 908 608</position>
			</node>
			<node id="tipo_parto">
				<name>tipo_parto</name>
				<interior color="e5f6f7" />
				<outline color="000080" />
				<font color="000000" name="Arial" size="8" />
				<position>607 563 679 611</position>
			</node>
			<node id="situacao_laboral_mae">
				<name>situacao_laboral_mae</name>
				<interior color="e5f6f7" />
				<outline color="000080" />
				<font color="000000" name="Arial" size="8" />
				<position>438 486 510 534</position>
			</node>
			<node id="faixa_renda_familiar">
				<name>faixa_renda_familiar</name>
				<interior color="e5f6f7" />
				<outline color="000080" />
				<font color="000000" name="Arial" size="8" />
				<position>434 355 506 403</position>
			</node>
			<node id="nivel_inseguranca_alimentar">
				<name>nivel_inseguranca_alimentar</name>
				<interior color="e5f6f7" />
				<outline color="000080" />
				<font color="000000" name="Arial" size="8" />
				<position>455 164 527 212</position>
			</node>
			<node id="tempo_ate_primeira_mamada">
				<name>tempo_ate_primeira_mamada</name>
				<interior color="e5f6f7" />
				<outline color="000080" />
				<font color="000000" name="Arial" size="8" />
				<position>583 130 655 178</position>
			</node>
			<node id="escolaridade_mae">
				<name>escolaridade_mae</name>
				<interior color="e5f6f7" />
				<outline color="000080" />
				<font color="000000" name="Arial" size="8" />
				<position>695 110 767 158</position>
			</node>
			<node id="alvo_sucesso_ame_6m">
				<name>alvo_sucesso_ame_6m</name>
				<interior color="ffff80" />
				<outline color="000080" />
				<font color="000000" name="Arial" size="8" />
				<position>665 314 737 362</position>
			</node>
			<node id="faixa_etaria_mae">
				<name>faixa_etaria_mae</name>
				<interior color="e5f6f7" />
				<outline color="000080" />
				<font color="000000" name="Arial" size="8" />
				<position>844 140 916 188</position>
			</node>
			<textbox>
				<caption>Input file: dataset_amamentacao_renomeado.csv\nData rows: 8699\nElapsed time: 0.062s\n\nLearning algorithm: Tree Augmented Naive Bayes\nAlgorithm options:\nClass variable: alvo_sucesso_ame_6m\nMax search time: 80s\n\nRandom seed: 42\nEM Log Likelihood: -79648.2</caption>
				<font color="000000" name="Arial" size="8" />
				<position>10 248 247 402</position>
			</textbox>
		</genie>
	</extensions>
</smile>
