<?xml version="1.0" encoding="UTF-8"?>
<!-- This network was created in GeNIe Academic, which can be used for academic teaching and research purposes only -->
<smile version="1.0" id="dataset_amamentacao_renomeado" numsamples="10000" discsamples="10000">
	<nodes>
		<cpt id="alvo_sucesso_ame_6m">
			<state id="Desmame_precoce____6m_" />
			<state id="Sucesso__AME_6m__" />
			<probabilities>0.5817910104609726 0.4182089895390275</probabilities>
		</cpt>
		<cpt id="escolaridade_mae">
			<state id="Ensino_Médio" />
			<state id="Fundamental_I" />
			<state id="Fundamental_II" />
			<state id="Superior" />
			<parents>alvo_sucesso_ame_6m</parents>
			<probabilities>0.5692550879272871 0.0701442402687216 0.2118158466706185 0.1487848251333728 0.560197910940077 0.06239692138537659 0.1921385376580539 0.1852666300164926</probabilities>
		</cpt>
		<cpt id="faixa_etaria_mae">
			<state id="Adolescente" />
			<state id="Adulta" />
			<state id="Jovem_Adulta" />
			<state id="Maternidade_Tardia" />
			<parents>escolaridade_mae alvo_sucesso_ame_6m</parents>
			<probabilities>0.07775078097882679 0.199583477959042 0.5345366192294342 0.188129121832697 0.04906771344455348 0.2325809617271835 0.5250245338567222 0.1933267909715407 0.05915492957746479 0.2140845070422535 0.3042253521126761 0.4225352112676057 0.03524229074889868 0.1806167400881057 0.3480176211453745 0.4361233480176212 0.1809701492537313 0.144589552238806 0.519589552238806 0.1548507462686567 0.1130185979971388 0.1974248927038627 0.5121602288984263 0.1773962804005723 0.005312084993359893 0.2828685258964143 0.3532536520584329 0.3585657370517928 0.002967359050445104 0.3175074183976261 0.3367952522255193 0.3427299703264095</probabilities>
		</cpt>
		<cpt id="tipo_parto">
			<state id="Cesariana_agendada__eletiva_" />
			<state id="Cesariana_de_urgência__Não_agendada_" />
			<state id="Normal" />
			<parents>escolaridade_mae alvo_sucesso_ame_6m faixa_etaria_mae</parents>
			<probabilities>0.08928571428571427 0.2366071428571428 0.6741071428571428 0.28 0.2834782608695652 0.4365217391304348 0.1675324675324675 0.2558441558441558 0.5766233766233766 0.3081180811808118 0.2749077490774908 0.4169741697416974 0.14 0.14 0.72 0.2594936708860759 0.2447257383966245 0.4957805907172995 0.1663551401869159 0.2429906542056075 0.5906542056074766 0.3223350253807106 0.2563451776649746 0.4213197969543147 0.04761904761904762 0.2857142857142857 0.6666666666666666 0.131578947368421 0.2236842105263158 0.6447368421052632 0.09259259259259259 0.25 0.6574074074074073 0.1933333333333334 0.24 0.5666666666666667 0.03703703703703703 0.03703703703703703 0.9259259259259259 0.0975609756097561 0.0975609756097561 0.8048780487804879 0.1139240506329114 0.1265822784810127 0.7594936708860759 0.2222222222222222 0.2222222222222222 0.5555555555555556 0.06701030927835051 0.1907216494845361 0.7422680412371134 0.1935483870967742 0.2645161290322581 0.5419354838709678 0.1310592459605027 0.244165170556553 0.6247755834829444 0.2891566265060241 0.2349397590361446 0.4759036144578314 0.0379746835443038 0.2025316455696203 0.7594936708860759 0.1666666666666667 0.2173913043478261 0.6159420289855072 0.1173184357541899 0.223463687150838 0.659217877094972 0.2096774193548387 0.217741935483871 0.5725806451612903 0.2666666666666667 0.06666666666666667 0.6666666666666667 0.3615023474178404 0.3004694835680751 0.3380281690140845 0.3045112781954887 0.2744360902255639 0.4210526315789473 0.4518518518518519 0.2703703703703704 0.2777777777777778 0.1111111111111111 0.1111111111111111 0.7777777777777778 0.3785046728971962 0.3037383177570093 0.3177570093457944 0.2775330396475771 0.2555066079295155 0.4669603524229075 0.4761904761904762 0.2683982683982684 0.2554112554112554</probabilities>
		</cpt>
		<cpt id="tempo_ate_primeira_mamada">
			<state id="x_1_hora" />
			<state id="x1_a___24_horas" />
			<state id="x24_horas" />
			<parents>tipo_parto alvo_sucesso_ame_6m</parents>
			<probabilities>0.592188919164396 0.3769300635785649 0.03088101725703905 0.6084848484848485 0.3721212121212121 0.01939393939393939 0.5680428134556575 0.3562691131498471 0.07568807339449542 0.6127167630057804 0.3329479768786127 0.05433526011560694 0.7680995475113123 0.1968325791855204 0.03506787330316742 0.7828542094455853 0.1919917864476386 0.02515400410677618</probabilities>
		</cpt>
		<cpt id="oferta_outros_liquidos">
			<state id="Desconhecido" />
			<state id="Não" />
			<state id="Sim" />
			<parents>tipo_parto tempo_ate_primeira_mamada alvo_sucesso_ame_6m</parents>
			<probabilities>0.009202453987730062 0.8312883435582822 0.1595092024539877 0.00199203187250996 0.9023904382470119 0.09561752988047809 0.01445783132530121 0.7590361445783134 0.2265060240963856 0.01954397394136808 0.8469055374592834 0.1335504885993485 0.02941176470588235 0.4117647058823529 0.5588235294117647 0.0196078431372549 0.4313725490196078 0.5490196078431373 0.006729475100942127 0.8358008075370121 0.1574697173620458 0.005660377358490567 0.9 0.09433962264150944 0.02360515021459227 0.7618025751072961 0.2145922746781116 0.006944444444444444 0.8159722222222222 0.1770833333333333 0.0303030303030303 0.5353535353535354 0.4343434343434344 0.02127659574468085 0.4893617021276596 0.4893617021276596 0.003436426116838488 0.9106529209621993 0.0859106529209622 0.005901639344262295 0.9449180327868852 0.04918032786885246 0.01915708812260536 0.8544061302681992 0.1264367816091954 0.01336898395721925 0.9117647058823529 0.0748663101604278 0.04301075268817205 0.5913978494623656 0.3655913978494624 0.02040816326530612 0.5714285714285714 0.4081632653061224</probabilities>
		</cpt>
		<cpt id="usou_mamadeira">
			<state id="Não" />
			<state id="Sim" />
			<parents>oferta_outros_liquidos alvo_sucesso_ame_6m</parents>
			<probabilities>0.8679245283018867 0.1320754716981132 0.9642857142857142 0.03571428571428571 0.8794642857142857 0.1205357142857143 0.9267993874425727 0.07320061255742726 0.7712765957446809 0.2287234042553191 0.8782608695652174 0.1217391304347826</probabilities>
		</cpt>
		<cpt id="zona_residencial">
			<state id="Rural" />
			<state id="Urbano" />
			<parents>alvo_sucesso_ame_6m</parents>
			<probabilities>0.02608180201541197 0.973918197984588 0.01731720725673447 0.9826827927432655</probabilities>
		</cpt>
		<cpt id="faixa_renda_familiar">
			<state id="Até_R__1_000_00" />
			<state id="De_R__1_001_00_até_R__2_000_00" />
			<state id="De_R__2_001_00_até_R__3_000_00" />
			<state id="De_R__3_001_00_até_R__5_000_00" />
			<state id="R__5_001_00_ou_mais" />
			<state id="Sem_renda" />
			<parents>escolaridade_mae alvo_sucesso_ame_6m</parents>
			<probabilities>0.2905241235682055 0.402290871225269 0.1822283929191253 0.09475876431794515 0.02221450885109337 0.007983339118361681 0.2870461236506379 0.4180569185475956 0.1663395485770363 0.09077526987242394 0.02453385672227674 0.01324828263002944 0.5257490636704119 0.3600187265917602 0.07631086142322097 0.01451310861423221 0.0004681647940074905 0.02294007490636703 0.5550660792951543 0.2995594713656388 0.08370044052863437 0.04845814977973568 0.00881057268722467 0.004405286343612335 0.4309701492537313 0.375 0.1194029850746269 0.04664179104477612 0.009328358208955223 0.01865671641791045 0.3919885550786839 0.4005722460658083 0.1416309012875537 0.02861230329041488 0.01716738197424893 0.02002861230329041 0.100929614873838 0.2656042496679947 0.2164674634794156 0.2324037184594953 0.1806108897742364 0.00398406374501992 0.08456973293768547 0.2077151335311573 0.2106824925816024 0.2492581602373887 0.2462908011869436 0.001483679525222552</probabilities>
		</cpt>
		<cpt id="situacao_laboral_mae">
			<state id="Desempregado_e_ativamente_procurando_por_trabalho" />
			<state id="Fora_do_mercado_de_trabalho__não_trabalha_e_não_procura_ativamente_por_trabalho" />
			<state id="Trabalho_irregular_e_sem_horário_fixo__bicos_" />
			<state id="Trabalho_regular_ou_com_horário_fixo" />
			<parents>faixa_renda_familiar alvo_sucesso_ame_6m</parents>
			<probabilities>0.3553137003841229 0.3546734955185659 0.177336747759283 0.1126760563380282 0.3589251439539347 0.3550863723608445 0.1717850287907869 0.1142034548944338 0.2652196929592377 0.3562731604023293 0.1296982530439386 0.2488088935944945 0.2649253731343283 0.3813432835820896 0.1432835820895522 0.2104477611940299 0.1601423487544484 0.2906287069988138 0.1470937129300119 0.402135231316726 0.1686143572621035 0.310517529215359 0.1218697829716194 0.3989983305509182 0.1232604373757455 0.2524850894632206 0.1391650099403578 0.4850894632206759 0.1380208333333333 0.2317708333333333 0.1848958333333333 0.4453125 0.09047619047619049 0.180952380952381 0.1380952380952381 0.5904761904761905 0.1 0.2130434782608696 0.1478260869565217 0.5391304347826087 0.1851851851851852 0.6296296296296295 0.1481481481481481 0.03703703703703703 0.3023255813953488 0.5581395348837209 0.09302325581395349 0.04651162790697674</probabilities>
		</cpt>
		<cpt id="nivel_inseguranca_alimentar">
			<state id="Insegurança_grave" />
			<state id="Insegurança_leve" />
			<state id="Insegurança_moderada" />
			<state id="Segurança" />
			<parents>faixa_renda_familiar alvo_sucesso_ame_6m</parents>
			<probabilities>0.1139564660691421 0.4302176696542894 0.117797695262484 0.3380281690140845 0.109404990403071 0.3905950095969289 0.13531669865643 0.36468330134357 0.02752779248279513 0.3875066172578084 0.05399682371625199 0.5309687665431445 0.02611940298507463 0.3567164179104478 0.04701492537313433 0.5701492537313433 0.005931198102016607 0.3748517200474496 0.02372479240806643 0.5954922894424675 0.008347245409015025 0.318864774624374 0.02337228714524207 0.649415692821369 0.007952286282306162 0.2962226640159045 0.005964214711729622 0.6898608349900596 0.0006493506493506494 0.25 0.003246753246753247 0.7461038961038962 0.009523809523809525 0.3 0.009523809523809525 0.680952380952381 0.001082251082251082 0.2305194805194805 0.01406926406926407 0.7543290043290043 0.1111111111111111 0.5 0.1666666666666667 0.2222222222222222 0.06976744186046512 0.3255813953488372 0.1162790697674419 0.4883720930232558</probabilities>
		</cpt>
	</nodes>
	<extensions>
		<genie version="1.0" app="GeNIe 5.0.6522.0 ACADEMIC" name="dataset_amamentacao_renomeado">
			<node id="oferta_outros_liquidos">
				<name>oferta_outros_liquidos</name>
				<interior color="e5f6f7" />
				<outline color="000080" />
				<font color="000000" name="Arial" size="8" />
				<position>927 379 999 427</position>
			</node>
			<node id="usou_mamadeira">
				<name>usou_mamadeira</name>
				<interior color="e5f6f7" />
				<outline color="000080" />
				<font color="000000" name="Arial" size="8" />
				<position>853 519 925 567</position>
			</node>
			<node id="zona_residencial">
				<name>zona_residencial</name>
				<interior color="e5f6f7" />
				<outline color="000080" />
				<font color="000000" name="Arial" size="8" />
				<position>700 533 772 581</position>
			</node>
			<node id="tipo_parto">
				<name>tipo_parto</name>
				<interior color="e5f6f7" />
				<outline color="000080" />
				<font color="000000" name="Arial" size="8" />
				<position>531 525 603 573</position>
			</node>
			<node id="situacao_laboral_mae">
				<name>situacao_laboral_mae</name>
				<interior color="e5f6f7" />
				<outline color="000080" />
				<font color="000000" name="Arial" size="8" />
				<position>447 438 519 486</position>
			</node>
			<node id="faixa_renda_familiar">
				<name>faixa_renda_familiar</name>
				<interior color="e5f6f7" />
				<outline color="000080" />
				<font color="000000" name="Arial" size="8" />
				<position>397 306 469 354</position>
			</node>
			<node id="nivel_inseguranca_alimentar">
				<name>nivel_inseguranca_alimentar</name>
				<interior color="e5f6f7" />
				<outline color="000080" />
				<font color="000000" name="Arial" size="8" />
				<position>501 134 573 182</position>
			</node>
			<node id="tempo_ate_primeira_mamada">
				<name>tempo_ate_primeira_mamada</name>
				<interior color="e5f6f7" />
				<outline color="000080" />
				<font color="000000" name="Arial" size="8" />
				<position>653 57 725 139</position>
			</node>
			<node id="escolaridade_mae">
				<name>escolaridade_mae</name>
				<interior color="e5f6f7" />
				<outline color="000080" />
				<font color="000000" name="Arial" size="8" />
				<position>851 87 923 135</position>
			</node>
			<node id="alvo_sucesso_ame_6m">
				<name>alvo_sucesso_ame_6m</name>
				<interior color="ffff80" />
				<outline color="000080" />
				<font color="000000" name="Arial" size="8" />
				<position>693 310 765 358</position>
			</node>
			<node id="faixa_etaria_mae">
				<name>faixa_etaria_mae</name>
				<interior color="e5f6f7" />
				<outline color="000080" />
				<font color="000000" name="Arial" size="8" />
				<position>913 241 985 289</position>
			</node>
			<textbox>
				<caption>Input file: dataset_amamentacao_renomeado.csv\nData rows: 8699\nElapsed time: 1.047s\n\nLearning algorithm: Augmented Naive Bayes\nAlgorithm options:\nClass variable: alvo_sucesso_ame_6m\nFeature selection: no\nMax parent count: 3\nInitial link probability: 0.1\nPrior link probability: 0.001\nBDeu sample size: 50\nIteration count: 100\nRandom Seed: 42\n\nBest score in iteration 5: -80443.7\nEM Log Likelihood: -79460.5</caption>
				<font color="000000" name="Arial" size="8" />
				<position>10 248 246 486</position>
			</textbox>
		</genie>
	</extensions>
</smile>
