<?xml version="1.0" encoding="UTF-8"?>
<!-- This network was created in GeNIe Academic, which can be used for academic teaching and research purposes only -->
<smile version="1.0" id="Network1" numsamples="10000" discsamples="10000">
	<nodes>
		<cpt id="situacao_laboral_mae">
			<state id="Trabalho_regular" />
			<state id="Trabalho_irregular_bicos" />
			<state id="Desempregado" />
			<state id="Fora_mercado" />
			<probabilities>0.2634785607541097 0.1501321991033452 0.253017588228532 0.3333716519140131</probabilities>
		</cpt>
		<cpt id="faixa_renda_familiar">
			<state id="Sem_renda" />
			<state id="Ate_1000" />
			<state id="De_1001_a_2000" />
			<state id="De_2001_a_3000" />
			<state id="De_3001_a_5000" />
			<state id="mais_ou_5001" />
			<parents>situacao_laboral_mae</parents>
			<probabilities>0.001745200698080279 0.1287085514834206 0.3280977312390925 0.2521815008726003 0.181064572425829 0.1082024432809773 0.009188361408882083 0.3491577335375192 0.3346094946401225 0.1508422664624809 0.1079632465543645 0.04823889739663094 0.01044979554747842 0.4220808723307587 0.3889141299409359 0.1072239890958655 0.05224897773739209 0.01908223534756929 0.02 0.3186206896551724 0.4082758620689655 0.1486206896551724 0.07448275862068965 0.03</probabilities>
		</cpt>
		<cpt id="zona_residencial">
			<state id="Urbano" />
			<state id="Rural" />
			<probabilities>0.9775836303023336 0.0224163696976664</probabilities>
		</cpt>
		<cpt id="nivel_inseguranca_alimentar">
			<state id="Seguranca" />
			<state id="Inseguranca_leve" />
			<state id="Inseguranca_moderada" />
			<state id="Inseguranca_grave" />
			<parents>faixa_renda_familiar zona_residencial</parents>
			<probabilities>0.34375 0.4166666666666666 0.1458333333333333 0.09375 0.125 0.625 0.125 0.125 0.3511811023622047 0.410236220472441 0.1263779527559055 0.1122047244094488 0.25 0.578125 0.0625 0.109375 0.5476416587527698 0.3738524849635961 0.05128205128205128 0.02722380500158278 0.5285714285714286 0.4142857142857143 0.04285714285714286 0.01428571428571429 0.6181299072091363 0.350463954318344 0.02426837972876517 0.007137758743754461 0.6011904761904762 0.3869047619047619 0.005952380952380952 0.005952380952380952 0.7208237986270023 0.2711670480549199 0.003432494279176202 0.004576659038901602 0.3035714285714285 0.5892857142857143 0.08928571428571427 0.01785714285714286 0.7211981566820277 0.2649769585253456 0.01152073732718894 0.002304147465437788 0.6071428571428571 0.1785714285714285 0.03571428571428571 0.1785714285714285</probabilities>
		</cpt>
		<cpt id="escolaridade_mae">
			<state id="Fundamental_I" />
			<state id="Fundamental_II" />
			<state id="Ensino_Medio" />
			<state id="Superior" />
			<parents>zona_residencial</parents>
			<probabilities>0.06514581373471308 0.2026105362182502 0.5662041392285984 0.1660395108184384 0.1435897435897436 0.2461538461538462 0.5333333333333333 0.07692307692307693</probabilities>
		</cpt>
		<cpt id="faixa_etaria_mae">
			<state id="Adolescente" />
			<state id="Jovem_Adulta" />
			<state id="Adulta" />
			<state id="Maternidade_Tardia" />
			<parents>escolaridade_mae nivel_inseguranca_alimentar faixa_renda_familiar</parents>
			<probabilities>0.0625 0.8125 0.0625 0.0625 0.1111111111111111 0.3555555555555556 0.1777777777777778 0.3555555555555556 0.06097560975609756 0.2682926829268293 0.1829268292682927 0.4878048780487805 0.03846153846153846 0.1923076923076923 0.07692307692307693 0.6923076923076923 0.02777777777777778 0.02777777777777778 0.1388888888888889 0.8055555555555555 0.4166666666666666 0.08333333333333333 0.08333333333333333 0.4166666666666666 0.0625 0.0625 0.3125 0.5625 0.05309734513274336 0.3451327433628318 0.1769911504424779 0.4247787610619469 0.02469135802469136 0.3950617283950617 0.1975308641975309 0.382716049382716 0.0125 0.2625 0.1625 0.5625 0.02777777777777778 0.02777777777777778 0.3611111111111111 0.5833333333333333 0.25 0.25 0.25 0.25 0.125 0.125 0.625 0.125 0.004385964912280702 0.4254385964912281 0.1973684210526316 0.3728070175438596 0.0131578947368421 0.3289473684210526 0.2763157894736842 0.381578947368421 0.25 0.25 0.25 0.25 0.25 0.25 0.25 0.25 0.25 0.25 0.25 0.25 0.08333333333333333 0.4166666666666666 0.4166666666666666 0.08333333333333333 0.07407407407407407 0.2592592592592592 0.3518518518518519 0.3148148148148148 0.015625 0.265625 0.203125 0.515625 0.125 0.125 0.125 0.625 0.25 0.25 0.25 0.25 0.25 0.25 0.25 0.25 0.225 0.525 0.025 0.225 0.1904761904761905 0.5634920634920635 0.123015873015873 0.123015873015873 0.1740331491712707 0.4917127071823204 0.1685082872928177 0.1657458563535912 0.1153846153846154 0.5 0.1846153846153846 0.2 0.1363636363636364 0.3636363636363636 0.1590909090909091 0.3409090909090909 0.25 0.3333333333333333 0.25 0.1666666666666667 0.2 0.4 0.06666666666666667 0.3333333333333333 0.1805054151624549 0.5379061371841155 0.1660649819494585 0.1155234657039711 0.140625 0.49609375 0.19140625 0.171875 0.1279069767441861 0.4302325581395349 0.2093023255813953 0.2325581395348837 0.04347826086956522 0.4347826086956522 0.2173913043478261 0.3043478260869565 0.1388888888888889 0.4722222222222222 0.3611111111111111 0.02777777777777778 0.2857142857142857 0.4285714285714285 0.1428571428571428 0.1428571428571428 0.09473684210526316 0.6210526315789473 0.1684210526315789 0.1157894736842105 0.2105263157894737 0.5 0.131578947368421 0.1578947368421053 0.02083333333333333 0.6041666666666666 0.1875 0.1875 0.25 0.25 0.25 0.25 0.625 0.125 0.125 0.125 0.5625 0.3125 0.0625 0.0625 0.08035714285714285 0.5625 0.1607142857142857 0.1964285714285714 0.03846153846153846 0.6923076923076923 0.1153846153846154 0.1538461538461539 0.25 0.25 0.25 0.25 0.5625 0.3125 0.0625 0.0625 0.125 0.625 0.125 0.125 0.05263157894736842 0.4736842105263158 0.3684210526315789 0.1052631578947368 0.08863198458574181 0.5645472061657033 0.1926782273603083 0.1541425818882466 0.06288751107174491 0.5535872453498671 0.2152347209920283 0.1682905225863596 0.04436229205175601 0.4972273567467653 0.2162661737523105 0.2421441774491682 0.0513595166163142 0.4078549848942598 0.2779456193353474 0.2628398791540785 0.03846153846153846 0.4615384615384615 0.2307692307692308 0.2692307692307692 0.1818181818181818 0.5909090909090909 0.09090909090909091 0.1363636363636364 0.08744038155802862 0.5834658187599364 0.1939586645468999 0.1351351351351351 0.056 0.5346666666666666 0.212 0.1973333333333333 0.07796610169491525 0.5084745762711864 0.2033898305084746 0.2101694915254237 0.04032258064516129 0.5080645161290323 0.2338709677419355 0.217741935483871 0.0078125 0.5078125 0.2578125 0.2265625 0.03571428571428571 0.8928571428571428 0.03571428571428571 0.03571428571428571 0.07500000000000001 0.56875 0.1875 0.16875 0.08602150537634409 0.4946236559139786 0.2150537634408602 0.2043010752688172 0.04761904761904762 0.4761904761904762 0.3333333333333333 0.1428571428571428 0.08333333333333333 0.75 0.08333333333333333 0.08333333333333333 0.05 0.45 0.25 0.25 0.0625 0.5625 0.0625 0.3125 0.07017543859649122 0.4210526315789473 0.2192982456140351 0.2894736842105263 0.07692307692307693 0.5641025641025641 0.1538461538461539 0.2051282051282051 0.1428571428571428 0.2857142857142857 0.4285714285714285 0.1428571428571428 0.125 0.625 0.125 0.125 0.125 0.625 0.125 0.125 0.08333333333333333 0.08333333333333333 0.4166666666666666 0.4166666666666666 0.005208333333333333 0.609375 0.296875 0.08854166666666666 0.01030927835051546 0.4278350515463917 0.2577319587628866 0.3041237113402062 0.001282051282051282 0.3858974358974359 0.2730769230769231 0.3397435897435898 0.00398406374501992 0.2549800796812749 0.346613545816733 0.3944223107569721 0.001106194690265487 0.1825221238938053 0.3329646017699115 0.4834070796460177 0.125 0.125 0.125 0.625 0.004098360655737705 0.4959016393442623 0.2663934426229508 0.2336065573770492 0.01626016260162602 0.4390243902439025 0.2926829268292683 0.2520325203252033 0.002314814814814815 0.3819444444444444 0.3263888888888889 0.2893518518518519 0.01111111111111111 0.3333333333333334 0.2888888888888889 0.3666666666666667 0.003205128205128205 0.2852564102564102 0.2724358974358974 0.4391025641025641 0.25 0.25 0.25 0.25 0.01666666666666667 0.4166666666666667 0.2833333333333333 0.2833333333333333 0.01470588235294118 0.3088235294117647 0.1323529411764706 0.5441176470588235 0.08333333333333333 0.4166666666666666 0.4166666666666666 0.08333333333333333 0.08333333333333333 0.4166666666666666 0.08333333333333333 0.4166666666666666 0.25 0.25 0.25 0.25 0.125 0.125 0.125 0.625 0.01923076923076923 0.5576923076923077 0.3269230769230769 0.09615384615384616 0.03125 0.40625 0.28125 0.28125 0.08333333333333333 0.4166666666666666 0.08333333333333333 0.4166666666666666 0.25 0.25 0.25 0.25 0.25 0.25 0.25 0.25</probabilities>
		</cpt>
		<cpt id="tipo_parto">
			<state id="Normal" />
			<state id="Cesariana_agendada" />
			<state id="Cesariana_urgencia" />
			<parents>faixa_etaria_mae</parents>
			<probabilities>0.7183544303797468 0.08227848101265822 0.1993670886075949 0.5833531510107015 0.1697978596908442 0.2468489892984542 0.4650053022269354 0.2698833510074232 0.2651113467656416 0.4129554655870445 0.3294534412955465 0.2575910931174089</probabilities>
		</cpt>
		<cpt id="tempo_ate_primeira_mamada">
			<state id="ate_1h" />
			<state id="entre_1h_24h" />
			<state id="maior_24h" />
			<parents>tipo_parto</parents>
			<probabilities>0.7743478260869565 0.1947826086956522 0.0308695652173913 0.5991692627206646 0.3748701973001038 0.02596053997923157 0.5858260469397147 0.3469857340082835 0.06718821905200184</probabilities>
		</cpt>
		<cpt id="oferta_outros_liquidos">
			<state id="sim" />
			<state id="nao" />
			<state id="desconhecido" />
			<parents>tempo_ate_primeira_mamada situacao_laboral_mae</parents>
			<probabilities>0.09908136482939632 0.8917322834645669 0.009186351706036745 0.09634551495016611 0.9014396456256921 0.00221483942414175 0.1030789825970549 0.8942436412315931 0.002677376171352075 0.08558994197292069 0.9090909090909091 0.005319148936170213 0.1581259150805271 0.8169838945827232 0.02489019033674963 0.1833810888252149 0.8051575931232091 0.01146131805157593 0.1344262295081967 0.8524590163934426 0.01311475409836066 0.1726027397260274 0.8123287671232877 0.01506849315068493 0.3875968992248062 0.6085271317829457 0.003875968992248062 0.496969696969697 0.496969696969697 0.00606060606060606 0.422680412371134 0.5257731958762887 0.05154639175257732 0.4607843137254902 0.4901960784313725 0.04901960784313725</probabilities>
		</cpt>
		<cpt id="usou_mamadeira">
			<state id="sim" />
			<state id="nao" />
			<parents>oferta_outros_liquidos</parents>
			<probabilities>0.195077484047402 0.804922515952598 0.09998670389575853 0.9000132961042414 0.09876543209876543 0.9012345679012346</probabilities>
		</cpt>
		<cpt id="alvo_sucesso_ame_6m">
			<state id="sucesso" />
			<state id="desmame_precoce" />
			<parents>usou_mamadeira oferta_outros_liquidos</parents>
			<probabilities>0.1962616822429906 0.8037383177570093 0.3178191489361702 0.6821808510638298 0.125 0.875 0.3431483578708947 0.6568516421291054 0.4470379672034274 0.5529620327965726 0.3698630136986301 0.6301369863013698</probabilities>
		</cpt>
	</nodes>
	<extensions>
		<genie version="1.0" app="GeNIe 5.0.6522.0 ACADEMIC" name="Network1">
			<node id="situacao_laboral_mae">
				<name>situacao_laboral_mae</name>
				<interior color="e5f6f7" />
				<outline color="000080" />
				<font color="000000" name="Arial" size="8" />
				<position>42 15 186 86</position>
			</node>
			<node id="faixa_renda_familiar">
				<name>faixa_renda_familiar</name>
				<interior color="e5f6f7" />
				<outline color="000080" />
				<font color="000000" name="Arial" size="8" />
				<position>264 20 372 87</position>
			</node>
			<node id="nivel_inseguranca_alimentar">
				<name>nivel_inseguranca_alimentar</name>
				<interior color="e5f6f7" />
				<outline color="000080" />
				<font color="000000" name="Arial" size="8" />
				<position>441 6 601 107</position>
			</node>
			<node id="zona_residencial">
				<name>zona_residencial</name>
				<interior color="e5f6f7" />
				<outline color="000080" />
				<font color="000000" name="Arial" size="8" />
				<position>693 22 786 80</position>
			</node>
			<node id="escolaridade_mae">
				<name>escolaridade_mae</name>
				<interior color="e5f6f7" />
				<outline color="000080" />
				<font color="000000" name="Arial" size="8" />
				<position>664 304 763 365</position>
			</node>
			<node id="faixa_etaria_mae">
				<name>faixa_etaria_mae</name>
				<interior color="e5f6f7" />
				<outline color="000080" />
				<font color="000000" name="Arial" size="8" />
				<position>318 286 423 350</position>
			</node>
			<node id="tipo_parto">
				<name>tipo_parto</name>
				<interior color="e5f6f7" />
				<outline color="000080" />
				<font color="000000" name="Arial" size="8" />
				<position>327 445 389 483</position>
			</node>
			<node id="tempo_ate_primeira_mamada">
				<name>tempo_ate_primeira_mamada</name>
				<interior color="e5f6f7" />
				<outline color="000080" />
				<font color="000000" name="Arial" size="8" />
				<position>320 565 469 658</position>
			</node>
			<node id="oferta_outros_liquidos">
				<name>oferta_outros_liquidos</name>
				<interior color="e5f6f7" />
				<outline color="000080" />
				<font color="000000" name="Arial" size="8" />
				<position>53 478 171 551</position>
			</node>
			<node id="usou_mamadeira">
				<name>usou_mamadeira</name>
				<interior color="e5f6f7" />
				<outline color="000080" />
				<font color="000000" name="Arial" size="8" />
				<position>305 723 398 781</position>
			</node>
			<node id="alvo_sucesso_ame_6m">
				<name>alvo_sucesso_ame_6m</name>
				<interior color="e5f6f7" />
				<outline color="000080" />
				<font color="000000" name="Arial" size="8" />
				<position>130 783 254 860</position>
			</node>
		</genie>
	</extensions>
</smile>
